<?xml version="1.0"?>
<opencv_storage>
<stage8>
  <maxWeakCount>7</maxWeakCount>
  <stageThreshold>-1.5476608276367188e+00</stageThreshold>
  <weakClassifiers>
    <_>
      <internalNodes>
        0 -1 139058 -3.5358898341655731e-02</internalNodes>
      <leafValues>
        -4.4347825646400452e-01 -8.8102561235427856e-01</leafValues></_>
    <_>
      <internalNodes>
        0 -1 4210 4.1664913296699524e-02</internalNodes>
      <leafValues>
        -5.3638380765914917e-01 2.1679994463920593e-01</leafValues></_>
    <_>
      <internalNodes>
        0 -1 70771 -7.8001483343541622e-03</internalNodes>
      <leafValues>
        -8.7590306997299194e-01 1.0086110979318619e-01</leafValues></_>
    <_>
      <internalNodes>
        0 -1 161767 3.4896235447376966e-03</internalNodes>
      <leafValues>
        -2.9837229847908020e-01 3.7689399719238281e-01</leafValues></_>
    <_>
      <internalNodes>
        0 -1 60597 -5.0114101031795144e-04</internalNodes>
      <leafValues>
        3.7095248699188232e-01 -3.0638313293457031e-01</leafValues></_>
    <_>
      <internalNodes>
        0 -1 122412 -4.7209981130436063e-04</internalNodes>
      <leafValues>
        -6.8876087665557861e-01 1.7679899930953979e-01</leafValues></_>
    <_>
      <internalNodes>
        0 -1 106782 -7.0694182068109512e-03</internalNodes>
      <leafValues>
        4.4888612627983093e-01 -2.9019805788993835e-01</leafValues></_></weakClassifiers></stage8>
</opencv_storage>
