<?xml version="1.0"?>
<opencv_storage>
<stage15>
  <maxWeakCount>10</maxWeakCount>
  <stageThreshold>-1.9818005561828613e+00</stageThreshold>
  <weakClassifiers>
    <_>
      <internalNodes>
        0 -1 14665 -7.0890940725803375e-02</internalNodes>
      <leafValues>
        6.0000002384185791e-01 -8.4814816713333130e-01</leafValues></_>
    <_>
      <internalNodes>
        0 -1 148088 -2.5103319436311722e-02</internalNodes>
      <leafValues>
        1.6537451744079590e-01 -5.0989145040512085e-01</leafValues></_>
    <_>
      <internalNodes>
        0 -1 155167 1.4209781773388386e-02</internalNodes>
      <leafValues>
        -2.0316778123378754e-01 6.1397355794906616e-01</leafValues></_>
    <_>
      <internalNodes>
        0 -1 146873 5.3055561147630215e-04</internalNodes>
      <leafValues>
        2.0923909544944763e-01 -5.0961828231811523e-01</leafValues></_>
    <_>
      <internalNodes>
        0 -1 37703 -4.6514403074979782e-03</internalNodes>
      <leafValues>
        -7.4059611558914185e-01 1.4725583791732788e-01</leafValues></_>
    <_>
      <internalNodes>
        0 -1 126067 5.3901807405054569e-04</internalNodes>
      <leafValues>
        -2.5366693735122681e-01 3.7691536545753479e-01</leafValues></_>
    <_>
      <internalNodes>
        0 -1 126388 -7.7774637611582875e-04</internalNodes>
      <leafValues>
        4.2039462924003601e-01 -2.4588230252265930e-01</leafValues></_>
    <_>
      <internalNodes>
        0 -1 14800 2.2985771298408508e-02</internalNodes>
      <leafValues>
        -2.1114015579223633e-01 4.8493912816047668e-01</leafValues></_>
    <_>
      <internalNodes>
        0 -1 114988 -7.2101940168067813e-04</internalNodes>
      <leafValues>
        -9.0555840730667114e-01 1.4123788475990295e-01</leafValues></_>
    <_>
      <internalNodes>
        0 -1 79656 -1.4349675038829446e-03</internalNodes>
      <leafValues>
        5.3181838989257812e-01 -2.0763663947582245e-01</leafValues></_></weakClassifiers></stage15>
</opencv_storage>
