<?xml version="1.0"?>
<opencv_storage>
<stage17>
  <maxWeakCount>10</maxWeakCount>
  <stageThreshold>-1.6935410499572754e+00</stageThreshold>
  <weakClassifiers>
    <_>
      <internalNodes>
        0 -1 41886 -1.0682299733161926e-02</internalNodes>
      <leafValues>
        -8.5528755187988281e-01 1.</leafValues></_>
    <_>
      <internalNodes>
        0 -1 39009 1.0023182258009911e-02</internalNodes>
      <leafValues>
        -4.9916020035743713e-01 6.4093554019927979e-01</leafValues></_>
    <_>
      <internalNodes>
        0 -1 159477 -1.4154754579067230e-02</internalNodes>
      <leafValues>
        6.1764907836914062e-01 -2.2806538641452789e-01</leafValues></_>
    <_>
      <internalNodes>
        0 -1 67557 -6.3820213079452515e-02</internalNodes>
      <leafValues>
        -9.4699531793594360e-01 1.4893695712089539e-01</leafValues></_>
    <_>
      <internalNodes>
        0 -1 27508 -7.6695680618286133e-02</internalNodes>
      <leafValues>
        -7.8884154558181763e-01 1.7224062979221344e-01</leafValues></_>
    <_>
      <internalNodes>
        0 -1 20292 4.3192743323743343e-03</internalNodes>
      <leafValues>
        -2.6560291647911072e-01 5.8604651689529419e-01</leafValues></_>
    <_>
      <internalNodes>
        0 -1 127942 -3.8322177715599537e-04</internalNodes>
      <leafValues>
        3.0339765548706055e-01 -4.9382862448692322e-01</leafValues></_>
    <_>
      <internalNodes>
        0 -1 53561 -3.2279267907142639e-04</internalNodes>
      <leafValues>
        -7.2520697116851807e-01 2.1822737157344818e-01</leafValues></_>
    <_>
      <internalNodes>
        0 -1 113606 -3.3618276938796043e-03</internalNodes>
      <leafValues>
        7.6880282163619995e-01 -1.9933010637760162e-01</leafValues></_>
    <_>
      <internalNodes>
        0 -1 26959 -8.0583110684528947e-04</internalNodes>
      <leafValues>
        4.2369654774665833e-01 -3.6543726921081543e-01</leafValues></_></weakClassifiers></stage17>
</opencv_storage>
