<?xml version="1.0"?>
<opencv_storage>
<stage11>
  <maxWeakCount>7</maxWeakCount>
  <stageThreshold>-1.4637260437011719e+00</stageThreshold>
  <weakClassifiers>
    <_>
      <internalNodes>
        0 -1 152581 -6.8116456270217896e-02</internalNodes>
      <leafValues>
        1. -8.4501844644546509e-01</leafValues></_>
    <_>
      <internalNodes>
        0 -1 99 1.7365075647830963e-02</internalNodes>
      <leafValues>
        -5.0347387790679932e-01 3.0397740006446838e-01</leafValues></_>
    <_>
      <internalNodes>
        0 -1 64263 -1.9817298743873835e-04</internalNodes>
      <leafValues>
        -6.5424215793609619e-01 1.3196343183517456e-01</leafValues></_>
    <_>
      <internalNodes>
        0 -1 118912 -7.7956490218639374e-02</internalNodes>
      <leafValues>
        -7.2602105140686035e-01 1.2845285236835480e-01</leafValues></_>
    <_>
      <internalNodes>
        0 -1 120580 3.0596223659813404e-03</internalNodes>
      <leafValues>
        8.4176078438758850e-02 -1.</leafValues></_>
    <_>
      <internalNodes>
        0 -1 90755 7.5428094714879990e-03</internalNodes>
      <leafValues>
        -3.3332276344299316e-01 2.9745450615882874e-01</leafValues></_>
    <_>
      <internalNodes>
        0 -1 116993 4.3693475890904665e-04</internalNodes>
      <leafValues>
        1.2771339714527130e-01 -7.5728058815002441e-01</leafValues></_></weakClassifiers></stage11>
</opencv_storage>
