<?xml version="1.0"?>
<opencv_storage>
<stage3>
  <maxWeakCount>7</maxWeakCount>
  <stageThreshold>-1.8550616502761841e+00</stageThreshold>
  <weakClassifiers>
    <_>
      <internalNodes>
        0 -1 3335 7.5770258903503418e-02</internalNodes>
      <leafValues>
        -9.0621817111968994e-01 -1.9266055524349213e-01</leafValues></_>
    <_>
      <internalNodes>
        0 -1 61166 3.2315514981746674e-02</internalNodes>
      <leafValues>
        -6.8802696466445923e-01 3.0420619249343872e-01</leafValues></_>
    <_>
      <internalNodes>
        0 -1 156058 -1.7420534044504166e-02</internalNodes>
      <leafValues>
        4.4142132997512817e-01 -3.8935714960098267e-01</leafValues></_>
    <_>
      <internalNodes>
        0 -1 34737 2.6598214171826839e-03</internalNodes>
      <leafValues>
        -4.3097609281539917e-01 3.4652885794639587e-01</leafValues></_>
    <_>
      <internalNodes>
        0 -1 2386 5.4984509944915771e-02</internalNodes>
      <leafValues>
        -2.7449268102645874e-01 6.1416471004486084e-01</leafValues></_>
    <_>
      <internalNodes>
        0 -1 2244 -1.2063754722476006e-02</internalNodes>
      <leafValues>
        6.0966187715530396e-01 -2.5078409910202026e-01</leafValues></_>
    <_>
      <internalNodes>
        0 -1 80361 -4.9452248960733414e-02</internalNodes>
      <leafValues>
        3.5443618893623352e-01 -5.5315744876861572e-01</leafValues></_></weakClassifiers></stage3>
</opencv_storage>
