<?xml version="1.0"?>
<opencv_storage>
<stage0>
  <maxWeakCount>7</maxWeakCount>
  <stageThreshold>-1.7702527046203613e+00</stageThreshold>
  <weakClassifiers>
    <_>
      <internalNodes>
        0 -1 99186 3.3731613308191299e-02</internalNodes>
      <leafValues>
        -9.1085273027420044e-01 5.1724135875701904e-01</leafValues></_>
    <_>
      <internalNodes>
        0 -1 5185 1.8295137211680412e-02</internalNodes>
      <leafValues>
        -7.7046620845794678e-01 4.0283739566802979e-01</leafValues></_>
    <_>
      <internalNodes>
        0 -1 78269 -1.6733713448047638e-02</internalNodes>
      <leafValues>
        1.9437423348426819e-01 -8.8855713605880737e-01</leafValues></_>
    <_>
      <internalNodes>
        0 -1 154713 -1.0387855581939220e-03</internalNodes>
      <leafValues>
        3.5038954019546509e-01 -7.1911436319351196e-01</leafValues></_>
    <_>
      <internalNodes>
        0 -1 109980 -2.7822729200124741e-02</internalNodes>
      <leafValues>
        5.9441435337066650e-01 -4.1869765520095825e-01</leafValues></_>
    <_>
      <internalNodes>
        0 -1 7689 4.4519267976284027e-03</internalNodes>
      <leafValues>
        -6.6030013561248779e-01 4.1351884603500366e-01</leafValues></_>
    <_>
      <internalNodes>
        0 -1 161882 -5.2598118782043457e-04</internalNodes>
      <leafValues>
        5.0169205665588379e-01 -4.9189648032188416e-01</leafValues></_></weakClassifiers></stage0>
</opencv_storage>
