<?xml version="1.0"?>
<opencv_storage>
<stage12>
  <maxWeakCount>10</maxWeakCount>
  <stageThreshold>-1.8293513059616089e+00</stageThreshold>
  <weakClassifiers>
    <_>
      <internalNodes>
        0 -1 15530 5.8757551014423370e-02</internalNodes>
      <leafValues>
        -8.4501844644546509e-01 1.</leafValues></_>
    <_>
      <internalNodes>
        0 -1 78672 -8.7185460142791271e-04</internalNodes>
      <leafValues>
        4.8515452072024345e-03 -5.9060943126678467e-01</leafValues></_>
    <_>
      <internalNodes>
        0 -1 24148 3.2763492316007614e-02</internalNodes>
      <leafValues>
        -2.9230424761772156e-01 4.1114482283592224e-01</leafValues></_>
    <_>
      <internalNodes>
        0 -1 87544 -1.7937064170837402e-02</internalNodes>
      <leafValues>
        -9.0638303756713867e-01 1.3426503539085388e-01</leafValues></_>
    <_>
      <internalNodes>
        0 -1 133922 7.6513974927365780e-03</internalNodes>
      <leafValues>
        -3.5622575879096985e-01 3.7571856379508972e-01</leafValues></_>
    <_>
      <internalNodes>
        0 -1 36966 -1.2414455413818359e-02</internalNodes>
      <leafValues>
        7.4774581193923950e-01 -1.6734138131141663e-01</leafValues></_>
    <_>
      <internalNodes>
        0 -1 35533 1.4882100746035576e-02</internalNodes>
      <leafValues>
        -3.0795180797576904e-01 3.9922243356704712e-01</leafValues></_>
    <_>
      <internalNodes>
        0 -1 160297 4.4335527345538139e-03</internalNodes>
      <leafValues>
        -1.9438721239566803e-01 5.5902755260467529e-01</leafValues></_>
    <_>
      <internalNodes>
        0 -1 113125 6.8471203558146954e-03</internalNodes>
      <leafValues>
        2.0094460248947144e-01 -7.0231044292449951e-01</leafValues></_>
    <_>
      <internalNodes>
        0 -1 60039 6.8128095008432865e-03</internalNodes>
      <leafValues>
        -3.2580974698066711e-01 3.9535588026046753e-01</leafValues></_></weakClassifiers></stage12>
</opencv_storage>
