<?xml version="1.0"?>
<opencv_storage>
<stage13>
  <maxWeakCount>8</maxWeakCount>
  <stageThreshold>-1.7936252355575562e+00</stageThreshold>
  <weakClassifiers>
    <_>
      <internalNodes>
        0 -1 28745 3.4589312970638275e-02</internalNodes>
      <leafValues>
        -8.4629631042480469e-01 4.0000000596046448e-01</leafValues></_>
    <_>
      <internalNodes>
        0 -1 101278 -2.4370918981730938e-03</internalNodes>
      <leafValues>
        -8.6700692772865295e-02 -6.9346278905868530e-01</leafValues></_>
    <_>
      <internalNodes>
        0 -1 68030 2.2829698864370584e-03</internalNodes>
      <leafValues>
        -4.4096738100051880e-01 2.1370987594127655e-01</leafValues></_>
    <_>
      <internalNodes>
        0 -1 57169 -2.9232539236545563e-02</internalNodes>
      <leafValues>
        7.8189677000045776e-01 -1.5705704689025879e-01</leafValues></_>
    <_>
      <internalNodes>
        0 -1 133402 2.3562421556562185e-03</internalNodes>
      <leafValues>
        1.2834312021732330e-01 -8.9939445257186890e-01</leafValues></_>
    <_>
      <internalNodes>
        0 -1 179 1.4194644056260586e-02</internalNodes>
      <leafValues>
        -2.7642035484313965e-01 3.9827206730842590e-01</leafValues></_>
    <_>
      <internalNodes>
        0 -1 129387 1.3290897477418184e-03</internalNodes>
      <leafValues>
        1.1897482722997665e-01 -8.4989279508590698e-01</leafValues></_>
    <_>
      <internalNodes>
        0 -1 113391 -8.3774293307214975e-04</internalNodes>
      <leafValues>
        4.0739762783050537e-01 -2.8141653537750244e-01</leafValues></_></weakClassifiers></stage13>
</opencv_storage>
