<?xml version="1.0"?>
<opencv_storage>
<stage5>
  <maxWeakCount>8</maxWeakCount>
  <stageThreshold>-1.7380549907684326e+00</stageThreshold>
  <weakClassifiers>
    <_>
      <internalNodes>
        0 -1 114377 -5.6743053719401360e-03</internalNodes>
      <leafValues>
        -2.6881721615791321e-01 -8.8766300678253174e-01</leafValues></_>
    <_>
      <internalNodes>
        0 -1 90414 3.9724607020616531e-02</internalNodes>
      <leafValues>
        -5.8688944578170776e-01 2.5575074553489685e-01</leafValues></_>
    <_>
      <internalNodes>
        0 -1 100593 -2.1907850168645382e-03</internalNodes>
      <leafValues>
        -8.1414204835891724e-01 1.0276930779218674e-01</leafValues></_>
    <_>
      <internalNodes>
        0 -1 93518 -3.4093871712684631e-02</internalNodes>
      <leafValues>
        3.0854737758636475e-01 -4.2313036322593689e-01</leafValues></_>
    <_>
      <internalNodes>
        0 -1 117060 -3.5991645418107510e-03</internalNodes>
      <leafValues>
        -8.1277495622634888e-01 1.8218380212783813e-01</leafValues></_>
    <_>
      <internalNodes>
        0 -1 85703 -1.2981559336185455e-01</internalNodes>
      <leafValues>
        -1.7593608796596527e-01 7.7328407764434814e-01</leafValues></_>
    <_>
      <internalNodes>
        0 -1 106341 4.4164857827126980e-03</internalNodes>
      <leafValues>
        -2.4754862487316132e-01 5.2548372745513916e-01</leafValues></_>
    <_>
      <internalNodes>
        0 -1 160635 -2.1102693863213062e-03</internalNodes>
      <leafValues>
        3.9650431275367737e-01 -3.2068634033203125e-01</leafValues></_></weakClassifiers></stage5>
</opencv_storage>
