<?xml version="1.0"?>
<opencv_storage>
<stage2>
  <maxWeakCount>6</maxWeakCount>
  <stageThreshold>-1.5255086421966553e+00</stageThreshold>
  <weakClassifiers>
    <_>
      <internalNodes>
        0 -1 4166 2.8596278280019760e-02</internalNodes>
      <leafValues>
        -8.6691659688949585e-01 6.5217393636703491e-01</leafValues></_>
    <_>
      <internalNodes>
        0 -1 145522 -2.2585801780223846e-02</internalNodes>
      <leafValues>
        4.2864695191383362e-01 -6.5014797449111938e-01</leafValues></_>
    <_>
      <internalNodes>
        0 -1 23181 9.0226233005523682e-03</internalNodes>
      <leafValues>
        1.9449381530284882e-01 -9.0239185094833374e-01</leafValues></_>
    <_>
      <internalNodes>
        0 -1 106650 -1.4888940379023552e-02</internalNodes>
      <leafValues>
        5.2922147512435913e-01 -4.2871090769767761e-01</leafValues></_>
    <_>
      <internalNodes>
        0 -1 13576 1.4708016067743301e-02</internalNodes>
      <leafValues>
        -4.1144391894340515e-01 5.1761591434478760e-01</leafValues></_>
    <_>
      <internalNodes>
        0 -1 119280 3.1738791614770889e-02</internalNodes>
      <leafValues>
        -2.9184281826019287e-01 6.4174467325210571e-01</leafValues></_></weakClassifiers></stage2>
</opencv_storage>
