<?xml version="1.0"?>
<opencv_storage>
<stage7>
  <maxWeakCount>8</maxWeakCount>
  <stageThreshold>-1.8984345197677612e+00</stageThreshold>
  <weakClassifiers>
    <_>
      <internalNodes>
        0 -1 139483 -2.1633867174386978e-02</internalNodes>
      <leafValues>
        -3.6170211434364319e-01 -8.7951809167861938e-01</leafValues></_>
    <_>
      <internalNodes>
        0 -1 3335 7.5889021158218384e-02</internalNodes>
      <leafValues>
        -5.7983517646789551e-01 1.2475387752056122e-01</leafValues></_>
    <_>
      <internalNodes>
        0 -1 25515 -1.6388170421123505e-02</internalNodes>
      <leafValues>
        5.1237219572067261e-01 -2.9673686623573303e-01</leafValues></_>
    <_>
      <internalNodes>
        0 -1 32464 -2.6098446920514107e-02</internalNodes>
      <leafValues>
        4.6812894940376282e-01 -3.0546551942825317e-01</leafValues></_>
    <_>
      <internalNodes>
        0 -1 75889 -3.6806650459766388e-02</internalNodes>
      <leafValues>
        -1.7229294776916504e-01 6.8023288249969482e-01</leafValues></_>
    <_>
      <internalNodes>
        0 -1 22478 3.4601435065269470e-02</internalNodes>
      <leafValues>
        1.6320019960403442e-01 -8.1568896770477295e-01</leafValues></_>
    <_>
      <internalNodes>
        0 -1 112396 2.1406054496765137e-02</internalNodes>
      <leafValues>
        -1.7174084484577179e-01 6.0024839639663696e-01</leafValues></_>
    <_>
      <internalNodes>
        0 -1 25973 2.8786212205886841e-03</internalNodes>
      <leafValues>
        -3.8645946979522705e-01 3.4395471215248108e-01</leafValues></_></weakClassifiers></stage7>
</opencv_storage>
